     -1.2166137604
     -0.3234821424
     -1.0062935918
      1.1261949024
      0.1102179662
      0.5108501117
      0.6295582128
      0.0553852899
      0.4736918267
      0.9945824708
     -0.0282654272
      1.2301809312
     -1.4921852036
      0.1552302951
      0.3253801747
      0.3623434442
     -1.1145021741
      0.2547240982
      0.1580257434
      0.5981022302
     -0.2179583465
      0.2326650137
      0.3284190508
     -1.8597422955
      0.7062384402
     -0.0931638335
     -0.4553720380
     -0.0255696195
      0.6812145159
     -2.7264549703
     -0.5503871376
     -1.6250205240
     -0.0422934748
      0.5128273766
     -1.5967426796
      0.3681910136
     -1.7026703701
      0.0361909662
     -0.5082419521
     -1.1610297591
      0.4045084788
     -0.1360583670
     -0.8626427399
     -0.4624389334
     -1.4059231476
      0.1098710449
     -0.6580774225
      0.7725659599
      0.2629995555
     -0.2135764814
      0.8199127507
      0.8568390036
     -0.1196446905
     -0.3195617236
      1.5896059867
     -0.1443609345
      1.1888373915
      0.4666855564
      1.3421899620
      0.5085543413
     -0.5217350200
      0.6543901699
     -1.2217465536
      0.3788471538
      1.0227966886
     -0.1235796730
      0.8607249901
      0.2816869243
      0.6722288755
     -1.7463030286
      0.1521388911
     -0.3662972505
      0.3034461903
     -0.7932775963
      0.9986354387
     -0.8907924638
     -0.9487613120
     -0.5885849802
     -1.2583500720
     -1.6065598607
      0.5021175672
      0.0191714925
      0.2306930922
      1.0815599123
      2.1797331123
      0.1406205544
      0.6789577436
      0.3616359397
      0.4784401232
      0.5105109238
     -0.1477539921
      0.2375421343
     -0.8471183628
      0.2182710351
     -0.8773734242
      0.1916226877
     -0.5974480545
     -1.0004414372
      0.2589741148
      0.0926443860
      0.2568884036
     -0.2202811682
      0.7073368887
      0.6022528290
     -0.4024086342
     -0.5100924431
     -0.7773430989
     -0.1650661796
     -0.0466603597
      1.2278087754
     -0.0363963262
      0.5703081693
     -0.3363638267
     -0.4122616829
      0.1599980794
     -0.2984049690
      0.6613333588
     -0.3978869067
      0.1289985750
     -0.6399549710
     -0.2777938921
     -0.2011218572
     -0.5587412474
      0.2161019195
      0.2319339999
     -0.3216886960
      0.8652616710
     -0.2035200564
     -1.6392464096
      0.2644818905
      0.5718458683
      0.9773810235
     -0.3106622838
      0.0915773523
      0.6390367044
      0.0274122307
      1.2445113989
      0.8720798745
      0.1017663710
      0.1364773855
     -0.6251968264
     -0.0986689940
     -0.7509343894
      0.8380774699
     -0.5133622011
      0.7581327417
     -0.4709013004
     -0.1977589824
     -0.3844731480
      0.6509337326
      0.0799257321
     -0.9511281047
      0.4415882488
      1.0600437406
      0.7620366265
      0.2297619590
     -0.0398885620
     -0.3744134129
     -0.6418236409
     -0.1445910336
      0.4227145099
      0.1729737678
      0.1145751752
     -0.1247643269
      0.7316418725
     -0.3659195238
      0.1499345165
     -0.5218027467
      0.4351858334
     -0.5195376845
     -0.1435398344
      0.0016220318
     -0.5185783880
      0.2034791578
     -0.6107918113
      0.3235746018
     -0.4178279317
      0.3716589243
     -0.0610063933
      0.7871651021
      0.1160033273
     -1.2476229992
      1.2432866859
     -0.1508064617
     -0.3799951972
      0.3055666889
     -0.0314666091
      0.9271919836
     -0.8041655860
     -1.2135919360
     -0.4924641645
      0.0779634731
     -0.0821702268
      0.6846913020
     -0.4573915652
      0.4891220071
     -0.3773864310
      0.5826379560
      2.4087378863
     -0.7192541558
      1.0597585379
     -0.1172303298
     -0.2449146497
      0.6809172596
      1.0526211700
      0.2802517029
      1.3748638616
      0.0387682615
     -0.9437003117
     -1.8330760162
      0.5785360930
      0.0744641290
     -1.1915737619
      0.5722436267
      1.1077973353
      0.0539121700
     -0.9195635986
     -0.3715150949
     -1.0776155477
      1.0026472198
      0.6761224102
      0.0698522873
     -0.0029527488
      0.8180886137
     -0.1130168694
     -0.1786286993
      0.1793593141
     -0.1859356788
      1.2764755442
      0.2803772356
     -0.4691127204
     -1.0347925004
     -1.7817273126
      1.4313071712
     -1.1272068071
      0.3276897937
     -0.7923423033
      0.2236760693
     -0.2664429671
     -1.2912166090
      0.2583082337
      1.2173811690
     -1.0955196045
      0.7749303913
     -0.2119158689
     -0.9147587014
      1.3023516174
     -0.6806377017
     -0.0750778457
     -0.1649860389
     -1.0384094765
     -0.1785093315
      0.0143803212
      0.4623467239
      1.1361318516
      0.0620400586
     -0.6043606301
     -0.2875601023
     -0.1521913745
      0.1292516738
      2.0200748266
      0.3690935728
      0.5245325554
     -0.3540907229
     -0.4162513375
      0.6677124662
     -0.3764212727
      0.8310846274
     -1.3994605173
      0.8041368289
     -1.3842238616
      0.4837571033
      1.2819407683
     -0.3652949392
     -0.9467655328
     -0.0847454362
      0.1901777802
     -0.0671292759
     -0.4071457443
     -0.3683640317
     -0.5100488133
     -0.0515283946
     -0.8935684887
     -0.0910346345
     -1.0620762425
      0.6503688740
      0.1500621022
      1.0037052335
     -0.6448888168
     -0.0449976978
      0.4085121513
      0.5756029433
      0.7131963962
     -0.1190164440
      0.1517427521
     -0.7379607391
      0.7915528507
     -0.1643270864
     -0.7962725705
     -0.0148856228
      0.5107661293
     -0.2487649506
      1.2816029299
     -0.5274393364
     -0.1703828020
      0.5717763081
     -0.2564868738
      0.3471869626
      0.5955468910
      0.0926016683
     -0.4807452394
     -0.1704253231
      0.0506399816
      0.2866909830
      0.5637046986
     -0.2103928532
      0.0332619297
     -0.2989565204
      0.0316588712
     -0.4016753422
     -0.6681892866
      0.2319435117
      0.6093766918
      0.1682708903
     -0.1096385900
      0.3301887878
     -0.6712635589
     -0.1200771390
      0.4546770617
      0.0300966059
     -0.0987180270
      0.7460228038
     -0.7982401348
      0.3660601657
     -0.8601095700
      0.3999991552
      0.9639231561
      1.3917164402
      0.3191182307
     -0.4285567850
     -0.5155641949
      0.1696501845
      0.1825320013
     -0.0999031433
     -0.0285700571
     -0.1178412734
     -0.4814597243
     -1.0417199839
     -1.7587521610
     -0.4309025296
      0.6974603883
     -0.4429117802
      0.2898742130
     -0.2922080712
     -0.1573261091
     -0.0723836303
     -1.3166866388
     -0.1093466796
     -0.4991571446
     -0.2968203211
      0.2695918280
     -0.3461939602
      0.0029903146
     -0.2240116503
      0.1555085466
      0.4088020919
      0.5068418031
     -0.6002740081
      0.3997865935
      0.0403773999
     -0.5638677328
      0.0034144521
      0.3574022959
     -0.0164239934
     -0.7896873085
      0.4353476780
     -0.2289887867
     -0.0810961375
      1.1712206071
     -1.0715680066
     -0.4128799934
     -0.1284339171
      1.0216783839
     -0.4650735111
     -0.5491545138
     -0.3244235033
     -0.5484277204
      0.6984742378
     -0.1902811928
      0.0596643004
     -0.3681414612
      0.1203581461
      1.4756298993
      0.7768369030
      0.3992901670
     -0.2627545738
     -0.0535480511
     -0.1991257314
     -0.2260279277
      0.0706516768
      0.6494558103
      0.4013166993
      1.1102999549
     -0.0776580425
      0.8048999964
      0.1653929286
     -0.2730014786
     -0.1701258984
     -0.0317305827
     -0.1301393015
      0.0737753245
     -0.0970815143
     -0.3604334226
      0.1890324875
     -0.4014678428
      0.0335079494
     -0.4296540849
     -1.0015490854
      0.0210842867
      0.4639033767
     -0.7414157851
      0.1888420842
      0.2428642064
      1.3277674519
      0.2215000554
      0.2002746467
      1.0619905015
     -0.2536065371
      0.3390142869
     -0.0585118780
      0.9515925459
     -0.5101493332
      0.2725540112
     -0.2416508502
      0.0693884736
     -1.1063550029
      0.2923470348
      0.3737327149
      0.4324465642
      1.4044191119
      0.5644473829
      0.9323188783
      0.7670601115
     -0.0404576904
      0.3792110987
     -0.8798945197
     -0.0795021556
      0.0701026083
     -0.2799352099
      0.2951388417
     -0.1679664892
     -0.2373938791
     -0.4048637699
      0.0492557207
     -0.6070671953
      0.5808098623
     -0.0070145493
      0.3823378904
     -0.6773149959
     -0.1797189323
     -0.5840718910
      1.1808205017
      0.1992279049
     -0.5226167247
      0.4555436443
     -0.2828464719
     -0.1677316843
     -0.5030807936
      0.2482656993
      1.0285654431
      0.3364278191
      0.6852687112
     -0.0696541195
      1.0931429989
      1.7111079100
     -0.9878066886
     -0.8613810939
      0.8133905000
      0.1230009275
      0.3913832487
     -0.4326251293
     -0.5107183856
      1.4911565317
     -1.6445728919
     -0.1859447894
      1.3352325296
     -0.2656276214
     -1.5188012786
      1.4493685252
      1.4183557994
      1.6374460972
      1.2727785722
     -1.1118618713
     -1.0810030141
      0.5910364731
      0.3830648647
     -1.4064094000
     -1.0712419223
     -0.8099106372
     -0.6908468543
      1.0994439120
     -0.4784146884
     -0.4452903967
     -0.1461606879
     -1.0389037585
      0.7227154172
     -1.0532879950
      0.5051528001
      0.2136840612
     -0.0934597019
      0.1441792723
      0.3425759681
     -0.1130083642
     -0.4542718394
     -0.6243424388
      0.3795903096
     -0.2040354740
     -0.1752269397
      0.4851908483
     -0.1108306353
     -0.8338116616
      0.4646358711
     -0.3920298530
     -0.4784640291
      0.0887517930
      0.5943157879
      0.1443346581
      0.5786042973
      0.0695243489
     -0.5955942300
      0.2458804518
      0.1741724945
      0.1020516696
      0.5892007354
     -0.0991643472
     -0.0020069235
     -0.4001326410
      0.2801970884
     -0.2977578014
     -0.9560136855
      0.7216654544
      0.1956687477
     -0.2532276690
      0.5781967204
     -0.0954789286
      0.2799917902
     -0.0619008887
     -0.5755682245
     -0.3909349865
     -0.0503284055
      0.4891454441
      0.7112605603
      0.8150532091
      0.0718917397
     -0.2869453470
      0.2938113673
      0.0703497748
     -0.6139289452
     -0.4338934879
     -0.7458647743
     -0.0744442236
     -0.3383131330
     -0.8950092950
      0.5847404372
     -0.1292879239
      0.0641782022
      0.2010440845
      0.2980053481
      0.6332178336
     -0.4293996884
     -0.1088123130
     -0.3726633197
     -0.7302778765
     -0.1414623248
      0.1551901180
      1.0082787094
     -0.7165591824
     -0.1974795257
     -0.4992247843
      0.3789290007
      0.0743827991
      0.1494997923
     -0.0798696587
      0.8704553379
     -0.7039392795
      0.4031264934
      0.2492917809
      0.9825108680
     -0.7311526096
     -0.7688713837
      0.0576975014
      0.3193764605
     -0.3416332486
      1.3785602072
      0.3039361737
      0.0209186097
      0.2091454567
      0.5856993058
     -0.2909878653
     -0.8827808339
      0.5522662050
      0.0655819925
     -0.5336685415
      0.4856209131
     -1.0472370282
      0.4999693909
      0.5734636363
     -0.7550642853
     -0.6980129112
      0.4862971683
      0.9144716312
      0.1228377973
     -0.7740388961
     -0.3995128143
      0.0074519396
      0.6808854264
     -0.7310349020
     -0.0963957239
      0.3099529938
      0.2248515782
     -0.2729242355
      0.2121453049
     -0.3214446402
     -0.1365027299
     -0.0537411544
     -0.5266170489
     -0.1182378722
     -0.4330250945
     -0.2588765748
      0.3554115721
      0.6363071715
      0.1519580663
     -0.5915291533
      0.0102761873
      0.6254138106
     -0.2834266496
     -0.5425299396
     -0.1754784718
     -0.4779386461
      0.5953670658
      0.3208195889
      0.3402477421
      0.4468510846
     -0.2859017506
     -0.3030780873
      0.0963940206
     -0.2622829118
     -0.1373819450
      0.1733311772
      0.3389979630
     -0.3751136604
      0.3085805849
     -0.1632095281
     -0.2573678308
     -0.9750553877
      0.5092020365
      1.7087884875
     -0.7724241335
     -0.7239470683
      0.5168976469
     -0.2686964657
      0.0111200121
      0.5899051030
     -0.1404484235
     -0.4799052238
     -0.4714511574
     -1.4171604090
      0.0480276799
     -0.2261844072
      0.0046687914
     -0.8127054386
     -0.3252465639
     -1.1726036026
     -0.0391129157
      0.4712831676
     -0.3265012832
     -0.3523889216
     -0.2089755696
     -0.1789411927
      0.4064639801
      0.6786885937
      0.0977824667
      0.5960589113
     -0.5883746943
      0.3374477465
     -0.5326616389
      0.6071666973
     -0.3302350449
     -0.1987470177
      0.8005112411
     -0.5595773049
     -0.2830044510
      0.0171641101
     -0.4251921663
     -0.0350831439
     -0.4455672960
      0.2507081208
      0.0809853786
      0.5841876688
     -0.0511110538
     -1.1316440577
      0.6758420649
     -0.2523052693
     -0.4881664598
      0.1694030843
     -0.5149804523
     -0.0585714790
     -0.0617544646
     -0.3187803049
     -0.3975867351
     -0.6798180351
     -0.4276044894
     -1.2973531945
      0.2482007023
      0.1071733254
      0.2324765335
     -0.1827072562
     -0.2601500198
      0.2030528511
     -0.5811220813
     -0.0152495687
     -0.2320148568
     -0.0365995251
      0.1441786623
     -0.1486750865
      0.0317052465
      0.5513212399
      0.0990309017
      0.4467417797
     -0.6769577463
     -0.4282975590
      0.0974825696
      0.1605589563
     -0.3778633091
     -0.0006386611
     -1.4293506228
      0.0542886102
     -1.1478590259
      0.3170618749
      0.7755452734
     -0.6532964830
     -0.8718370857
     -0.8074451071
     -0.6822938016
      1.0609908955
     -0.6238243800
     -0.2728248064
      1.1679400890
     -0.3716570354
     -0.0758586064
      0.6058335313
      0.3078702855
     -0.5744621939
      0.4102381356
     -0.3501108446
     -0.1244200158
     -0.8190021258
     -0.2333273924
     -0.0470086162
     -0.2836325909
      1.0232289271
      0.2297198006
      0.2321797319
      1.0572066251
     -0.4112743330
     -0.0422147991
     -0.0421467877
      0.3181423846
     -0.0125919571
     -0.6009475859
     -0.1346271285
     -0.5223814756
      0.7395522727
     -0.4286498452
      0.6027492172
     -0.2551875215
     -0.3405325539
     -0.5197322552
      0.5261783174
     -0.2156720297
     -0.8054197810
      1.1562133227
      0.4250964308
      0.6207604498
      0.6148979440
     -0.8639528142
     -0.3063639104
      0.5616768265
     -0.7053316706
     -0.2991789308
      0.3115230536
     -1.4583872296
     -0.2664065554
     -0.3873447024
      1.1029254372
     -0.7368897126
     -0.6111935632
     -0.5996204548
      0.0590373924
     -0.5217856016
      0.7479012195
      0.1155634617
     -0.4949289636
      0.2818587379
      1.2344451435
      0.7825233381
     -0.1967669213
     -0.1476898873
     -0.4477328468
      0.7575945448
      0.2381076489
      0.6708631625
      0.8427251477
     -0.0864111424
      0.7353997435
      0.2728722511
     -0.9358575621
      0.3020116338
      0.3196122341
      0.1249309407
     -0.6682461218
      0.3589639639
      0.9257303342
      0.6266568294
     -1.2028516549
      0.2562815053
     -0.0250673490
     -0.3977096559
     -0.2995379975
     -0.3289999474
      0.6270940010
      0.7798350756
      0.0788069820
      0.0108882021
      0.0383876281
     -0.0624452302
     -0.1105304978
      0.0023577842
     -0.3904691319
     -0.0147980547
     -0.3203132579
      0.0209757353
     -0.1799295728
      0.2486964938
      0.4733063229
      0.1258035429
     -0.4577455945
      0.2164398434
      0.4320987215
     -0.1872939586
      0.4025174385
     -0.2366346612
      0.8833457570
     -0.1521594750
      0.2575582230
      0.1083548973
      1.3152033205
     -0.1746394635
     -0.3619591572
      1.0386578724
     -1.4415856078
     -0.2193667699
     -0.3104819350
     -0.0638944425
     -0.9890118601
     -0.6183287233
     -0.8538075200
      0.3998156096
      0.2412371941
      0.1634289955
     -0.2005026742
      0.6258837743
      0.3953407730
      0.3605567733
      0.1675162635
     -0.0189344634
     -0.9423039504
     -0.1729294239
     -0.1774153804
      0.5177309746
     -0.3950300084
     -0.5742473027
      0.5470907081
      0.1204427831
     -0.2703184102
      0.1494975157
      0.4470308612
     -0.5047960153
      0.3968017229
      0.6348253443
     -0.1114528270
      0.0997880618
      0.4780917075
      0.3064532860
      0.6188987438
      0.2327335390
     -0.0259548953
      0.5647050065
      0.4243413112
      0.1450861041
      0.9319967874
      0.2631916857
      0.1757854680
     -0.1805514645
     -0.1702593175
     -0.2838939095
     -0.0712541484
      0.2943861429
      0.1010166392
     -0.0694396798
      0.3029599164
     -0.5222766616
     -0.3813974622
      0.1593388441
      0.0739646195
      0.0346221544
     -0.4387477148
     -0.3054589523
     -0.0507985768
      0.0464479243
      0.3552240596
      0.2506609837
      0.0561953402
      0.2274691417
      0.4945860095
      0.0797255799
     -0.9330659656
     -0.4764225243
     -0.5239353559
      0.2779349056
     -0.4011643374
     -1.6157496151
     -0.8114397466
      0.9439239902
     -0.1432224363
      0.2612676672
     -0.0672470389
      0.2085648975
     -0.9658620345
     -0.1295507902
     -0.1318916363
      0.1292987673
     -0.5756131469
     -0.3761683543
      0.8899935634
     -0.4816485666
     -0.5647032510
      1.2579176836
      0.6853298548
      1.5746998576
      0.2375492686
     -0.0856483238
      0.7957003093
     -0.1077897067
      0.1536019827
     -0.7456655952
      0.3352240672
      0.5379754169
     -0.1342340108
      0.0040870517
     -0.8220862972
      0.0482401054
     -0.1662219006
     -0.2892861327
     -0.5924899260
      0.4759343570
     -0.0725580306
      0.4539201396
     -0.5644814705
     -0.7833669237
     -0.2624192948
     -0.4385799782
      0.0897172017
      0.5806427112
     -0.8121232081
      0.4372554668
     -0.3411531765
      0.3458587938
     -0.3292366879
      0.0237252154
      0.3212117277
      0.0567728775
     -0.2806438416
      0.2626194002
      0.5467082870
     -0.8118366981
      0.1691159245
      0.6795995992
     -0.5180065428
     -0.0197771687
      0.2837715729
     -0.1928984092
     -0.0881332084
     -0.6030416250
      0.0228834930
     -0.1923830631
      0.4123704811
      1.1408285932
     -0.9602248965
     -0.0745898023
     -0.5287653331
     -0.0083332884
      0.1313544121
      0.3431839682
      0.1535755389
      0.8948876597
     -0.0408287087
      0.4468995211
     -0.2372680859
     -0.0485619324
      0.3921869674
     -0.5547253883
      0.4730565876
     -0.3411200400
      0.2015380646
     -0.0834397115
     -1.1429211845
      0.1580298998
      0.5187638735
      0.3238512963
     -0.0127526102
     -0.2010523687
     -0.6708849084
      0.0599404167
     -1.0442921281
     -0.6232752500
      0.2339906365
      0.7663882640
     -0.1171810095
      0.8824045449
     -0.4209563707
      0.3194221594
     -0.6116920288
      0.2022207138
     -0.1214221583
     -0.0072006973
     -0.0543555380
     -0.3785484765
      0.3398941803
      0.2639076931
      0.1539632707
      0.4135584923
      0.4367890977
     -0.2849130605
     -0.5499617188
      0.1174381785
      0.2062237286
     -0.0611845130
     -0.5683987714
      0.1668238925
     -0.0012840766
     -1.4267054494
      0.1021283493
      0.3669098683
     -0.2003947007
     -0.3873646247
     -0.1858491744
     -0.5761938704
     -0.2622039274
     -0.1667246503
      0.3125635366
      0.3855635417
      0.2695242520
     -0.2382199057
     -0.0548879328
      0.0273606131
      0.4057465684
      0.4639229847
     -0.1738212737
      0.4336745888
      0.5422173604
      0.2009503233
     -0.2786389093
      0.1488104541
      0.2539951884
     -0.2693932540
      0.5188867988
      0.6026233964
     -0.5260387957
      0.3974451248
      0.3406170704
     -0.5274460210
     -0.0138909152
     -1.4370487615
      0.3562037656
      0.8680110570
      0.0574134296
     -1.1964089874
      0.0244847945
      1.1233662363
     -0.3248698379
      0.6424302220
     -0.1260315526
     -0.6720797326
     -0.0507985021
      0.5047997072
      0.2846113434
     -0.1092571759
      0.3566551422
      0.0220271344
      0.2651748505
     -0.5725477041
      0.0932344289
     -0.1611978022
     -0.3247466970
      0.2170918842
      0.7469699352
      0.5832446493
      1.0183704356
     -0.6166765261
     -0.9350815524
      0.2476075323
      0.0327191149
     -0.5790937832
     -0.3199810895
     -0.1065216230
     -0.5993267409
      0.2750448528
     -0.6654456451
      0.6268000440
     -0.3418168609
     -0.2529930099
      0.0701679712
      0.1605598323
     -0.8266643034
     -1.4786058056
      0.7901663455
      1.0116913196
     -0.3379016925
      0.3515260065
      0.3846339584
      0.3726087099
      0.9629383443
      0.7489073387
     -0.1774915133
     -1.1006932010
      1.1901694715
      0.8055820235
      0.9075701188
      0.0886275339
      0.0755263277
     -0.0441789798
      0.2050058689
     -1.0004347243
      0.1027243500
     -1.1533724189
      0.7688234859
      0.0052820005
      0.3380570315
     -1.0190775562
     -0.0378136019
     -0.0286978968
      0.0654839170
     -0.0004088050
     -0.0341949904
     -0.0471886254
      0.0301728386
      0.0434378206
      0.0246007536
      0.0360248973
      0.0537024924
      0.0096834523
     -0.0496328447
     -0.1858711501
     -0.0404037586
      0.0090214701
     -0.0183793557
      0.0032929904
     -0.0118369165
      0.0126739251
     -0.0024102998
     -0.0049229224
      0.0332752975
     -0.0135877213
     -0.0320692124
     -0.0258984936
